function [y1] = myNeuralNetworkFunction(x1)
%MYNEURALNETWORKFUNCTION neural network simulation function.
%
% Auto-generated by MATLAB, 26-May-2023 17:43:17.
%
% [y1] = myNeuralNetworkFunction(x1) takes these arguments:
%   x = Qx1 matrix, input #1
% and returns:
%   y = Qx6 matrix, output #1
% where Q is the number of samples.

%#ok<*RPMT0>

% ===== NEURAL NETWORK CONSTANTS =====

% Input 1
x1_step1.xoffset = 2012;
x1_step1.gain = 0.2;
x1_step1.ymin = -1;

% Layer 1
b1 = [55.981859557653436354;53.125642066251330675;-50.256424019228823852;47.384615376250401653;-44.512820512855405752;41.641025641026089943;-38.769230769230759392;35.897435897435968855;33.025641025347944435;30.153846001022436951;-27.28195303934134941;24.411029813862949567;21.577989974051128286;-18.667679531848030194;-15.794824098764472353;-12.877376295114848048;-10.015895454561059452;7.179796376298622107;-4.3076808037825635722;-1.4129250403079427478;-1.4114093073990372496;4.3076161898802576289;-7.1794866736093752024;-10.051282052149588253;12.923076926999845782;15.794873551156646485;18.666563289283597982;-21.5027213217807045;24.384305305433962019;-27.282070626758617493;-30.154699397170983133;-33.140183088665217781;-35.891839798914936921;38.76922606389299375;-41.639643467492867046;44.682906820988044672;-47.381950990351519692;50.256366990610906953;-53.128205021408909658;55.99999999988751398];
IW1_1 = [-56.018105832791015075;-56.00256311406246823;55.999986191784309142;-56.000000008374222205;55.999999999964970243;-55.999999999999552358;56;-55.999999999999978684;-56.000000000116649801;-56.000000059996942525;56.000039309842598811;-55.999694200866940719;-55.984153353621586291;55.999594573378814744;56.000009587160704427;56.009142103777371346;56.007094553899477773;-55.999938124996191391;55.999999891877443758;55.999999998523790623;-55.999999999998699707;56;-55.999999999999985789;-56.000000000004114042;55.999999998429828452;55.999999298911063761;56.000041277533320283;-56.014305330010806472;56.010371199519205732;-55.999991807589118764;-55.999487107190894619;-55.931008687313259031;-56.003348307233608239;56.000002031419406023;-56.001105151384088288;55.863904621270862094;-56.002131325890239566;56.000034613042906528;-56.00000008544067498;56.000000000089968921];

% Layer 2
b2 = [-0.040445147357376760866;0.65721618157247219116;0.043521189030623817773;0.1608161281517951624;0.6066920241715377804;0.14836253348883757242];
LW2_1 = [0.4995748213303233265 -0.57692719468553121942 -0.90499382330453348455 -0.71282577153150006311 -0.75460179989315279148 0.21802573345968773166 -0.3146902753655203 -0.04715633186353649503 -0.2062528261200697044 -0.39828184232577551471 0.032095994738979595484 -0.7970731988596494455 0.14268353644080589149 -0.29927254785345758226 -0.062594595487640375397 0.6037122377873349599 -0.19764725972513361163 -0.699151049576588135 -0.43349579383770264762 -0.032544093359385836695 -0.46400619410327442749 -0.5839925663945195744 -0.80150291420045927104 0.004704603950702485396 0.014801730732500710183 -0.29267186264399058793 -0.830088704726067661 -0.75549375121062378735 0.73150501196318518105 0.050843998558938507948 0.66175404292122197436 0.023092976146402349746 -0.86046663437541737185 0.61635612095302871882 0.96565372329172949328 -0.80111281402437561905 -1.0023278229401924033 -0.29195583730982699322 -0.37925849623816076939 -0.77060152970469297795;0.32275951930175533766 0.61257869023695032951 0.96196550932476132534 -0.23859932708133807511 -0.43422205146866849068 -0.74827202547774640529 -0.80989256519048424821 -0.93887356600865901068 0.76191740397026042064 -0.23036284163567585792 -0.84224650331307815421 -0.69442487747365233552 -0.16820679372140873165 -0.037271689755814282896 -0.41691775360741667455 0.31092825285636543908 0.8814824712899066439 -0.43029016658375701665 -0.62579212713606990892 -0.59385936051151189119 -0.27961630848209340083 -0.66441633071650274545 -0.57571326761166297104 0.056234851285697814993 -0.43605952307164147497 1.0767045830461161593 -0.37558568419086535428 0.21901137356558761371 -0.31038984894113574864 -0.060002848915850018341 0.13355351210176649723 -0.70162748813998898623 0.26991360199026914746 0.72983081629849433369 0.20393880370126707402 -0.78340683382255082989 0.10510191642358752973 -0.44563202984259991934 -0.29485949854332355047 0.16680575059612662292;-0.038150651605164197233 -0.24562128219291928799 -0.66787812277976388309 -0.80412935089824666424 -0.38876371321466401954 0.38337374014595154703 -0.19926567600554692672 0.48444938433458090143 -0.58153651904777425852 -1.1282172384506519158 -0.207931104609109213 -0.019490526345888829068 0.50904809003002360335 0.48049340922261712938 -0.18364725023246375457 0.203775448794256131 0.53044256380966825493 0.17510153616048146352 -0.78276484137585844447 0.60083538117819812463 -0.061959830610311128485 -0.13787625926867266846 0.33459610464306449584 -0.7976425157027607904 0.25216786953740355504 -0.65510064087636254992 -0.063180483754240374106 -0.2632234664134743829 0.5401407604812058505 0.66666530345436758598 -0.77542372284764293777 0.86552250428763055634 -0.8605067811735790384 0.39178598622689769782 0.64860515058500101127 -0.52842929572890584566 -0.3837734320076929273 -0.52687813856033172133 -0.46047012603232134742 -0.015921921083492138888;-1.0485798903277299132 0.80158643474789370575 0.74021347265010262184 0.40964405666191577859 -0.53768385999103340822 0.05336936581982616723 -0.56289486217445483529 0.69940511054927001489 -0.96798191563883972943 -0.92659863939273856559 -0.10271516808927130815 0.27197868431991467641 -0.85679515251587246016 -0.59534827220818908877 -0.14524792422482446508 -0.020042200587316202215 -0.2461539891483608411 -0.1332921461367074234 -0.53402507616400063384 0.5594624308224164233 -0.17079081037551860356 -0.6611060824950251158 -0.64278105237983840237 0.21640323515445869518 -0.05032282087208845428 0.47160310806720101562 0.061230165699553557035 0.78698477613670958508 -0.45289210665193097016 0.060057252758598793363 -0.67937679006472051491 0.31652781366589016754 -0.81133393265021225282 -0.74795066331017201477 -0.043905565046436424714 -0.33462028295581308646 0.073544301163946682043 0.72667031736865284053 -0.079984743863356397298 -0.39537648740253922286;-0.38422798242706485139 -0.80119613325402938564 0.592894617727042883 -0.095460857751628699908 0.69687618970332287915 -0.25638359858358844567 -0.67389861248690829942 0.023437832073364452123 0.60221618517627850675 0.92581110186693560404 0.60066438813537825769 0.34170008327516604441 0.63213100069667904624 0.56160124159537405664 -0.28024233973376316831 0.34371417773094969927 0.47321442748450109894 0.40771569251254879962 -0.096704057343064114827 0.15836815188985189917 -0.067112198111886928187 0.1206563928170931721 0.58538394858973052948 0.65385349785323831906 0.63059885224548539728 1.0988915653780781945 -0.45439670308131485665 0.11103805194640621601 -0.3630997644111700895 -0.34591892149526459743 0.19262681835706257916 -0.37453419817694566518 0.30376565097577534758 0.050265829690227713245 0.13277684111869667016 0.59084259020438834042 0.042772972126691212458 -0.39166528314831788871 0.62924710034978315054 0.36975225614535056629;0.74161579252760467806 -0.35396410247888226985 0.97764004511145230492 0.58101847277789420154 0.39967656704957260638 -0.21376017689894910578 -0.27982608836078542991 -0.26182144361929216014 -0.46081710019963328939 0.67196165294582788086 -0.72895166903236308098 -0.32893377864100276087 -0.41800193303704208381 0.25539682123464407804 -0.27475236254638846223 -0.22766261482629071566 -0.03310485443768384356 -0.41217199910083385239 0.64853998368477361325 -0.9579758075606922274 0.30196537879399842907 0.15417371812138741527 0.32214282818243172857 -0.044989504974948760219 -0.070466690413418922589 0.73089932641668120539 0.58077139792661158779 0.71413851185054622039 0.33322287776877157484 0.87905843081186751942 -0.78250079491457857905 0.093099919306365019889 -0.68368747537900576017 -0.08528517730900493643 0.77276446916198160419 0.55341967876930731052 0.18696266003336048378 -0.71749050715345308316 0.77052049961408608514 0.95552379232908324358];

% Output 1
y1_step1.ymin = -1;
y1_step1.gain = [1.99239542514132e-07;2.15580661121213e-07;1.79839942451218e-08;5.7711729909104e-08;7.20653200060535e-07;1.66039266391495e-07];
y1_step1.xoffset = [340089058.5;18704898;19390000;2135000;52740;9522493.639];

% ===== SIMULATION ========

% Dimensions
Q = size(x1,1); % samples

% Input 1
x1 = x1';
xp1 = mapminmax_apply(x1,x1_step1);

% Layer 1
a1 = tansig_apply(repmat(b1,1,Q) + IW1_1*xp1);

% Layer 2
a2 = repmat(b2,1,Q) + LW2_1*a1;

% Output 1
y1 = mapminmax_reverse(a2,y1_step1);
y1 = y1';
end

% ===== MODULE FUNCTIONS ========

% Map Minimum and Maximum Input Processing Function
function y = mapminmax_apply(x,settings)
y = bsxfun(@minus,x,settings.xoffset);
y = bsxfun(@times,y,settings.gain);
y = bsxfun(@plus,y,settings.ymin);
end

% Sigmoid Symmetric Transfer Function
function a = tansig_apply(n,~)
a = 2 ./ (1 + exp(-2*n)) - 1;
end

% Map Minimum and Maximum Output Reverse-Processing Function
function x = mapminmax_reverse(y,settings)
x = bsxfun(@minus,y,settings.ymin);
x = bsxfun(@rdivide,x,settings.gain);
x = bsxfun(@plus,x,settings.xoffset);
end
