function [y1] = RIDS_function(x1)
%MYNEURALNETWORKFUNCTION neural network simulation function.
%
% Auto-generated by MATLAB, 26-May-2023 13:21:19.
%
% [y1] = myNeuralNetworkFunction(x1) takes these arguments:
%   x = Qx10 matrix, input #1
% and returns:
%   y = Qx1 matrix, output #1
% where Q is the number of samples.

%#ok<*RPMT0>

% ===== NEURAL NETWORK CONSTANTS =====

% Input 1
x1_step1.xoffset = [0.14;0.67;0.13;0.35;0.0136;0.2868;0.413;34014800;0.055;2012];
x1_step1.gain = [11.9047619047619;10.5263157894737;10;6.66666666666667;21.1193241816262;7.84621420164771;7.16845878136201;9.89902989507028e-07;80.2568218298555;0.2];
x1_step1.ymin = -1;

% Layer 1
b1 = [-1.9864025707444297186;-1.9179403608879810328;-1.7778709605252089876;-1.7158733832141066511;1.6118941679938150191;-1.5312353183028246661;-1.4025419380702746075;-1.2870807458425352898;-1.1820234045382715937;1.1220241895992826286;-0.97852987814382874632;0.89529141231944397994;-0.77813621524058018686;-0.65631119301412277345;0.56758000786777706992;-0.4668337115172428442;0.31363425432385949598;-0.30376988559793111078;-0.18265936854964240355;-0.069314977278354839019;-0.050079884253824397122;-0.22776028698928380001;0.26910157497446807184;0.35354851860479857839;-0.45147935823019846868;0.58760796428698036653;-0.69576833245685165696;0.73119275250654680587;0.93454389378737801053;-1.0817427139592299401;-1.1004967491553612202;1.1880826078871360441;-1.3021466703233428586;-1.3759029504110642517;-1.5522474987593173346;-1.6608021691195402614;1.6746919310016099569;-1.8267806576299243648;1.9237918288165001268;-2.0387308468753473356];
IW1_1 = [0.63951960095858417787 -0.17224029669005805343 -0.8430428703666067447 0.8026548348782038822 -0.85969184863026482102 -0.70523618839651558421 -0.91405849542895167836 0.6772795935380080401 -0.15825578206791354741 0.048596665048510859219;0.48833850516495380667 -0.81972967494378534692 0.92228736703616620574 0.29672750409711318165 0.29618966020946713158 -0.64305346053942280538 0.66328576411660700174 -0.22051158929298703137 -0.67089078579832206461 -0.89867819382727409661;0.86588055479399395065 -0.65137510827663447355 -0.99549449466094275252 0.47146160227014949351 -1.1627471715726021007 -0.010224384473532228609 -0.30684803915543279462 -0.53419696244006187325 -0.30747654854258565926 -0.071002440247624629133;0.92004095471369229386 0.097830069928502488841 -0.44845975420793865451 -0.072935605830233202207 1.1991105538372759387 0.26317177335368108215 -0.23705284915701468895 -0.6306348019040977082 0.72460746941008813415 0.76330159837474431672;-0.78234948132179216174 -0.21518803341127615281 0.68605039550442137308 -0.8617268217399796093 0.095962166278717508927 -0.80839281127582984787 -0.41468123066334172666 -0.7072622561972710109 0.75201687282136531199 0.5679927741901852345;0.85362489544530728569 0.94040962334902233888 0.25688600842521525092 1.0650788319647974678 -0.28550176451528103128 0.33828009603600517341 0.14320459483274444734 -0.24336027008377378311 0.96599590066375606856 0.18533746524314848036;0.92252929241708947483 -0.89106618252096614352 -0.072281423019108961836 0.77433322680333804833 0.41328290408791984456 0.68947069237572500278 -0.41561141260462802771 0.18102056950107534017 0.078610106482494598867 -0.9928542595443989871;0.67872653560451556842 -0.13032096871139106642 -0.53112789494515788569 -0.14840242474353931845 1.1350459656781204387 0.71165943934851949582 -0.35541652958554453834 -0.62669519002375140282 0.81085112765504996357 0.54794432282741578621;1.0437396056409335987 0.09766146231269959288 -0.9808596372200760749 0.89371406037446166071 -0.31307753677933736203 -0.62672161559911254702 -0.38601856198251222052 0.467254265580069994 0.59540193774514271752 -0.11517393199150613436;-0.99441517966213621715 -0.80132537888719190811 -0.47755667500116921742 -0.37795154037031120087 0.41278832121574449143 -0.43597441015881016613 0.27987257758531741691 0.64102232776796519431 -1.0292872293034824871 0.3426997615166420541;0.36807960078545054472 0.10884198986556294086 -0.84957771430160999859 -0.33270882962087777734 0.25465679621307651948 -0.80812962715800762403 0.41461912067408196458 -1.0121529378744509309 -0.89874036067281937168 0.63938858135778098291;-0.40235518315864782224 0.80918901083449912282 -0.4160887862104881707 0.66679057588778889443 0.60884400828898854741 -0.12489039404273015454 1.0973393081549711603 0.49660619856554866214 -0.59803781965385272024 0.67657382009313382643;0.28922652594994596731 -0.62184842046438393304 -0.80252685137348178657 -0.82525091507098413679 0.18940244970909550504 -0.35624763251983321277 0.91518902430800674885 0.30869690473815569742 -0.52080902832405673308 -0.96849389840159216813;0.81700319274040678064 -0.7389185306937922082 0.71408835050893815222 1.0057203923061825979 -0.2870980275904993495 -0.49903557749949434275 -0.34156318373257404941 -0.099297043213569691211 -0.72802929880006406194 0.59891156813680668236;-0.21616482122718019832 -0.77045144767780160411 0.82930944644138115951 -0.87617194608453585758 0.61582684678157939562 0.75941815896486886128 -0.5291360262682422988 0.7099520987479637224 -0.45886325982371933829 0.12345982544769884548;0.56932277854147694818 0.35735613665107007764 -0.62014960577806188535 -0.43081269802748711761 -0.59921757406725739692 -0.22778270065611727624 0.89713489509900690155 -0.7110041301235354716 -0.49262721793667701986 -0.9341746723872840219;-0.65878926445081253949 -0.9856005207974833926 0.41638225662125216697 -0.90900543932402411151 0.60525409024489651433 -0.24216093305434305272 -0.42804148369861644285 0.41656779339795041439 0.89371628486161414084 -0.50102303773013334709;0.076262615132009631269 -0.52226427953201259857 -1.0556929553076190853 -0.15890348576295967864 1.1919817636955438722 0.24482840739296032884 0.14284857057062663732 -0.56219010917692557872 -0.35554036866396693251 -0.83167501273116017924;0.27009428459149503743 0.93824213191448524451 0.24209128728993153934 0.57547194357354880534 -0.42715253910908590473 -0.85728469077490454531 0.8503783579540853399 -0.96308111549387243056 -0.41059253642158283215 0.13809284399113933017;0.54970914150627614436 0.66826747894534754835 0.43110110701189430227 1.0538626638448633788 0.53931133348769444424 -0.7481366217629299431 -1.0449241588739550668 0.24581299279854210149 -0.24918722487146857669 0.10389885608955062857;-0.43802428882507643548 -0.58183418065200609437 -1.0450128245190162257 0.069733051486006711328 0.37690417999098269064 0.51402111422091290027 -0.54294119076592839424 0.83451153556644064313 -0.44458468593306060823 -0.97272341551357976996;-0.51411099167816143307 0.38476940750836768901 -1.1325499290736151803 0.68597071317847546634 -0.15812684745093089078 0.20523520392735492002 -0.15315883702211172124 0.29683897253500179936 0.59398623014264606557 1.1655649309640221389;0.94097810603420772857 -0.81547367373017121128 -0.90509992169604358558 0.20689403532026306998 -0.047385607530205084426 -0.77204323180121448011 0.12492777075073889514 0.62369753327385224484 -0.37226555532838279117 -0.64918270942393296874;0.24247395467754095932 0.26166440962424758476 0.75033268425197885421 0.51319226994386213381 0.9306022891598846325 0.71207789572051538585 0.82616703345182862517 -0.58890079516637827695 -0.77342338249968123343 -0.37635203017463964015;-0.85961676023473543307 0.75661854615291357362 -0.47620685408336538291 -1.0138721108220787315 0.93407515770879900874 -0.1692180319527589738 -0.5969801116302977384 0.20941672648759046549 0.24211556226232958111 -0.42458252683678210371;0.28691031583906928537 0.91667079341278556726 0.072978839623759922395 -0.053919961320289040707 0.52697158763251084057 0.10016970804442018594 1.066418108004384635 -0.72117508154032028411 -0.32403292465489152985 -1.0423198034647187527;-1.2016436060342559067 -0.6134215605776990321 0.09908056915764468231 -0.99724349759720665176 -0.44089110502683248605 0.12377976041457101897 -0.24983901681210632373 -0.79495642401281818579 -0.53956189191391445981 0.12158159572478662025;0.58359981008065353603 -0.05070456690118499421 0.14700371762592090441 -0.40036903716987709556 -0.91963525228215248219 -0.62889285777544523537 0.58622591600271556356 -1.003576308423533181 -0.88735120148929247375 -0.48784039723379030162;0.80533084636118212885 0.44663528031751492664 -0.40318332982623589222 1.0921879379888470574 0.1611187519301965354 -0.9854839687130445558 0.041825290542604767752 0.37565348136071818885 0.8459374198830408309 -0.22903695656807782077;-0.39448115008844003571 0.48812984957264421437 -0.20528605764410667867 -0.78125724711208432982 0.20599989059210221942 -0.066523135206569772304 -0.42524558889797758887 1.1551194328424678748 -0.12563145088852245568 1.1894320181254238733;-0.85257376294451803211 -0.058244911375273787646 -0.23912429186272105008 0.091793945889828088003 -0.35278195158808733911 -1.1027300449412420491 -0.20190742968846686622 0.40295419734923559885 -0.99037005241425324353 0.90169748023995921482;0.56318296235094356117 -0.29493855967851922983 1.0155782990887203265 -0.58459234944394378175 0.79728428161822895159 -0.11581041870651631598 0.46931255435131719045 0.46452638610206636871 0.84673741594283336021 -0.76201816508451036825;-0.49863343394523096386 -0.6154659521986879378 -1.2233513751963713823 0.18132498775079308739 0.35166582602807305857 0.16639972585994861065 1.1618630065883084335 0.14031048569416362803 -0.60396999258312755732 0.26107255700660431108;-0.58790281641777553112 -0.96330927670865851287 -0.25063850118977148984 1.1630650081569577914 0.27060988094129340142 0.30709245777049376525 0.89225417923502103879 -0.53619690969113209533 0.26361913833103312044 -0.33595438846943637135;-0.62985080023105133318 -0.1551018522128925492 0.66636452281672420295 -0.83603378652055870823 -0.41851252300512020721 -0.99865409713548292103 -0.78169705220142549074 -0.50223691799338365804 0.35933285766671685391 0.5070688273556037684;-0.82344194733897735361 -0.71209416570216144127 0.23259392079685964339 0.87005550808625309323 -0.80724145608736286306 0.4645574511010697738 -0.720552133655528948 -0.26204734467404949827 -0.58556198722777108578 0.08782923856085272929;0.13216920628821476891 -0.23536767866096866553 -0.36818005310798951335 -0.7895389424935952416 -0.3966108677019131723 -0.65287286423209067721 0.82334149591983352146 0.98110952611185364702 0.94377324211177304747 -0.46819929755201999955;-0.2373350048473570062 1.0525262382077791301 1.0125697295542450682 -0.79120136915704941671 -0.66277072117644941773 0.23822969632009485808 0.38653729005181847178 -0.66504039142280857444 0.41372297309334926663 -0.015059387349198441464;0.63609557356860757515 0.032704335634206986583 -1.0437763000554500792 0.37770647719465172409 -0.39777286369554215595 0.27297693938951961279 -1.1788681354710019988 0.082854013920197699949 0.10472742532719775399 0.90769700983466350408;-0.01779419366235628075 0.91943860879337291347 -0.39939978675547255227 -0.84276215917905372699 0.79300814680540687718 0.62142780954694987194 0.016835190020717216014 -0.63802560835152422047 0.82943879246172691477 0.51115558713305908611];

% Layer 2
b2 = 0.65290902664395233934;
LW2_1 = [-0.53704010833007143066 -0.55983529862340108973 -0.24544562321939397687 0.86409963572880388316 0.23129959101085434403 0.35299453370528682816 -0.59446293094906099697 -0.7108137651330950213 0.77713757673574002105 -0.075461732777704820796 -0.14444961541469192312 -0.089562012295449508481 0.166271458654284221 -0.33171873110900906845 -0.33309083226916813558 0.53770234194127086713 0.93042140706532716621 0.085802151025227715864 -0.50618356846235068591 0.1648991329571862785 0.44438175042874478171 0.72011297809047958296 -0.64633837739732546979 0.015883672801732161284 -0.11794494940337395261 0.031233178999560469447 -0.077546477981778563771 -0.75287922088083347738 -0.88607116466103508223 -0.77177742375346336523 -0.80112818388107720491 -0.24479582224217355524 0.69670214348931081005 -0.23788512787577570373 0.20942508866001682821 0.88245848665712822712 0.26337276173501683596 0.13576917650190648001 -0.66580492791762069249 0.59640887709336531941];

% Output 1
y1_step1.ymin = -1;
y1_step1.gain = 3.34001336005344e-07;
y1_step1.xoffset = 12000;

% ===== SIMULATION ========

% Dimensions
Q = size(x1,1); % samples

% Input 1
x1 = x1';
xp1 = mapminmax_apply(x1,x1_step1);

% Layer 1
a1 = tansig_apply(repmat(b1,1,Q) + IW1_1*xp1);

% Layer 2
a2 = repmat(b2,1,Q) + LW2_1*a1;

% Output 1
y1 = mapminmax_reverse(a2,y1_step1);
y1 = y1';
end

% ===== MODULE FUNCTIONS ========

% Map Minimum and Maximum Input Processing Function
function y = mapminmax_apply(x,settings)
y = bsxfun(@minus,x,settings.xoffset);
y = bsxfun(@times,y,settings.gain);
y = bsxfun(@plus,y,settings.ymin);
end

% Sigmoid Symmetric Transfer Function
function a = tansig_apply(n,~)
a = 2 ./ (1 + exp(-2*n)) - 1;
end

% Map Minimum and Maximum Output Reverse-Processing Function
function x = mapminmax_reverse(y,settings)
x = bsxfun(@minus,y,settings.ymin);
x = bsxfun(@rdivide,x,settings.gain);
x = bsxfun(@plus,x,settings.xoffset);
end
